<?xml version="1.0"?>
<opencv_storage>
<cascade>
  <stageType>BOOST</stageType>
  <featureType>HAAR</featureType>
  <height>24</height>
  <width>24</width>
  <stageParams>
    <boostType>GAB</boostType>
    <minHitRate>9.9500000476837158e-01</minHitRate>
    <maxFalseAlarm>5.0000000000000000e-01</maxFalseAlarm>
    <weightTrimRate>9.4999998807907104e-01</weightTrimRate>
    <maxDepth>1</maxDepth>
    <maxWeakCount>100</maxWeakCount></stageParams>
  <featureParams>
    <maxCatCount>0</maxCatCount>
    <featSize>1</featSize>
    <mode>BASIC</mode></featureParams>
  <stageNum>20</stageNum>
  <stages>
    <!-- stage 0 -->
    <_>
      <maxWeakCount>3</maxWeakCount>
      <stageThreshold>-7.5481182336807251e-01</stageThreshold>
      <weakClassifiers>
        <_>
          <internalNodes>
            0 -1 75 5.3727612830698490e-03</internalNodes>
          <leafValues>
            -6.5853661298751831e-01 5.4838711023330688e-01</leafValues></_>
        <_>
          <internalNodes>
            0 -1 0 -2.6789602998178452e-05</internalNodes>
          <leafValues>
            -6.2397921085357666e-01 4.7948592901229858e-01</leafValues></_>
        <_>
          <internalNodes>
            0 -1 33 -8.4828876424580812e-04</internalNodes>
          <leafValues>
            5.4329973459243774e-01 -5.7576119899749756e-01</leafValues></_></weakClassifiers></_>
    <!-- stage 1 -->
    <_>
      <maxWeakCount>4</maxWeakCount>
      <stageThreshold>-5.7976210117340088e-01</stageThreshold>
      <weakClassifiers>
        <_>
          <internalNodes>
            0 -1 70 1.1479124426841736e-02</internalNodes>
          <leafValues>
            -6.2424242496490479e-01 4.7540983557701111e-01</leafValues></_>
        <_>
          <internalNodes>
            0 -1 84 -6.9305940996855497e-05</internalNodes>
          <leafValues>
            -8.8769590854644775e-01 1.9870278239250183e-01</leafValues></_>
        <_>
          <internalNodes>
            0 -1 85 -4.0619065985083580e-03</internalNodes>
          <leafValues>
            -7.1174645423889160e-01 2.8659191727638245e-01</leafValues></_>
        <_>
          <internalNodes>
            0 -1 44 -1.5734350308775902e-03</internalNodes>
          <leafValues>
            6.0604280233383179e-01 -4.4081440567970276e-01</leafValues></_></weakClassifiers></_>
    <!-- stage 2 -->
    <_>
      <maxWeakCount>5</maxWeakCount>
      <stageThreshold>-1.0953426361083984e+00</stageThreshold>
      <weakClassifiers>
        <_>
          <internalNodes>
            0 -1 11 -4.8569805920124054e-02</internalNodes>
          <leafValues>
            6.5217393636703491e-01 -5.7777780294418335e-01</leafValues></_>
        <_>
          <internalNodes>
            0 -1 18 2.5362181477248669e-03</internalNodes>
          <leafValues>
            -4.0511795878410339e-01 6.2661659717559814e-01</leafValues></_>
        <_>
          <internalNodes>
            0 -1 77 9.1641694307327271e-03</internalNodes>
          <leafValues>
            -3.3811289072036743e-01 7.8777450323104858e-01</leafValues></_>
        <_>
          <internalNodes>
            0 -1 59 -2.8451546677388251e-04</internalNodes>
          <leafValues>
            6.8333977460861206e-01 -3.3819347620010376e-01</leafValues></_>
        <_>
          <internalNodes>
            0 -1 61 4.8935692757368088e-04</internalNodes>
          <leafValues>
            -4.6787500381469727e-01 6.1483967304229736e-01</leafValues></_></weakClassifiers></_>
    <!-- stage 3 -->
    <_>
      <maxWeakCount>4</maxWeakCount>
      <stageThreshold>-1.4297862052917480e+00</stageThreshold>
      <weakClassifiers>
        <_>
          <internalNodes>
            0 -1 36 -8.1692710518836975e-02</internalNodes>
          <leafValues>
            4.8387095332145691e-01 -6.3414633274078369e-01</leafValues></_>
        <_>
          <internalNodes>
            0 -1 84 7.3094990511890501e-05</internalNodes>
          <leafValues>
            3.7034186720848083e-01 -6.8515402078628540e-01</leafValues></_>
        <_>
          <internalNodes>
            0 -1 37 -7.0354505442082882e-04</internalNodes>
          <leafValues>
            5.2223163843154907e-01 -4.8136162757873535e-01</leafValues></_>
        <_>
          <internalNodes>
            0 -1 62 -3.7117634201422334e-04</internalNodes>
          <leafValues>
            -7.4714159965515137e-01 3.5775950551033020e-01</leafValues></_></weakClassifiers></_>
    <!-- stage 4 -->
    <_>
      <maxWeakCount>6</maxWeakCount>
      <stageThreshold>-8.7219363451004028e-01</stageThreshold>
      <weakClassifiers>
        <_>
          <internalNodes>
            0 -1 10 -4.0527101606130600e-02</internalNodes>
          <leafValues>
            6.5217393636703491e-01 -5.7777780294418335e-01</leafValues></_>
        <_>
          <internalNodes>
            0 -1 28 1.6480286139994860e-03</internalNodes>
          <leafValues>
            2.5998675823211670e-01 -7.8528231382369995e-01</leafValues></_>
        <_>
          <internalNodes>
            0 -1 51 -9.5333612989634275e-04</internalNodes>
          <leafValues>
            -7.4105405807495117e-01 2.7990040183067322e-01</leafValues></_>
        <_>
          <internalNodes>
            0 -1 56 -2.4666318669915199e-02</internalNodes>
          <leafValues>
            8.4189152717590332e-01 -2.8512850403785706e-01</leafValues></_>
        <_>
          <internalNodes>
            0 -1 8 5.0942287780344486e-03</internalNodes>
          <leafValues>
            2.5434342026710510e-01 -1.</leafValues></_>
        <_>
          <internalNodes>
            0 -1 5 -1.2058601714670658e-02</internalNodes>
          <leafValues>
            -9.7392469644546509e-01 2.4175113439559937e-01</leafValues></_></weakClassifiers></_>
    <!-- stage 5 -->
    <_>
      <maxWeakCount>4</maxWeakCount>
      <stageThreshold>-8.2163500785827637e-01</stageThreshold>
      <weakClassifiers>
        <_>
          <internalNodes>
            0 -1 57 -6.9437325000762939e-03</internalNodes>
          <leafValues>
            3.0434781312942505e-01 -6.0509556531906128e-01</leafValues></_>
        <_>
          <internalNodes>
            0 -1 81 2.0325992954894900e-04</internalNodes>
          <leafValues>
            1.9533807039260864e-01 -8.7090909481048584e-01</leafValues></_>
        <_>
          <internalNodes>
            0 -1 72 -5.1873869961127639e-04</internalNodes>
          <leafValues>
            -7.0058983564376831e-01 3.1617242097854614e-01</leafValues></_>
        <_>
          <internalNodes>
            0 -1 7 9.8457247018814087e-02</internalNodes>
          <leafValues>
            3.0160081386566162e-01 -7.2804993391036987e-01</leafValues></_></weakClassifiers></_>
    <!-- stage 6 -->
    <_>
      <maxWeakCount>6</maxWeakCount>
      <stageThreshold>-1.0075778961181641e+00</stageThreshold>
      <weakClassifiers>
        <_>
          <internalNodes>
            0 -1 68 7.6396018266677856e-02</internalNodes>
          <leafValues>
            -5.5172413587570190e-01 4.2307692766189575e-01</leafValues></_>
        <_>
          <internalNodes>
            0 -1 88 5.5107651278376579e-03</internalNodes>
          <leafValues>
            2.3033930361270905e-01 -7.0805644989013672e-01</leafValues></_>
        <_>
          <internalNodes>
            0 -1 60 -1.2199166230857372e-03</internalNodes>
          <leafValues>
            5.5468714237213135e-01 -3.7290376424789429e-01</leafValues></_>
        <_>
          <internalNodes>
            0 -1 48 3.5663932794705033e-04</internalNodes>
          <leafValues>
            -2.9723051190376282e-01 5.8827024698257446e-01</leafValues></_>
        <_>
          <internalNodes>
            0 -1 21 -5.4198987782001495e-03</internalNodes>
          <leafValues>
            -7.1400660276412964e-01 2.9825925827026367e-01</leafValues></_>
        <_>
          <internalNodes>
            0 -1 27 -1.7457841895520687e-03</internalNodes>
          <leafValues>
            7.1353942155838013e-01 -3.1431806087493896e-01</leafValues></_></weakClassifiers></_>
    <!-- stage 7 -->
    <_>
      <maxWeakCount>6</maxWeakCount>
      <stageThreshold>-8.4713846445083618e-01</stageThreshold>
      <weakClassifiers>
        <_>
          <internalNodes>
            0 -1 58 5.2680214866995811e-03</internalNodes>
          <leafValues>
            -4.8453608155250549e-01 6.2500000000000000e-01</leafValues></_>
        <_>
          <internalNodes>
            0 -1 41 -1.9669622997753322e-04</internalNodes>
          <leafValues>
            4.1142717003822327e-01 -4.3226918578147888e-01</leafValues></_>
        <_>
          <internalNodes>
            0 -1 78 1.5384426340460777e-02</internalNodes>
          <leafValues>
            -3.2975819706916809e-01 6.2736237049102783e-01</leafValues></_>
        <_>
          <internalNodes>
            0 -1 76 -9.9127423018217087e-03</internalNodes>
          <leafValues>
            7.4412143230438232e-01 -2.2984258830547333e-01</leafValues></_>
        <_>
          <internalNodes>
            0 -1 12 -1.7190063954330981e-04</internalNodes>
          <leafValues>
            -6.9907790422439575e-01 3.2396364212036133e-01</leafValues></_>
        <_>
          <internalNodes>
            0 -1 49 -1.2783901183865964e-04</internalNodes>
          <leafValues>
            4.7001436352729797e-01 -4.8931482434272766e-01</leafValues></_></weakClassifiers></_>
    <!-- stage 8 -->
    <_>
      <maxWeakCount>5</maxWeakCount>
      <stageThreshold>-7.2346198558807373e-01</stageThreshold>
      <weakClassifiers>
        <_>
          <internalNodes>
            0 -1 6 -8.4234610199928284e-02</internalNodes>
          <leafValues>
            6.0000002384185791e-01 -5.5801105499267578e-01</leafValues></_>
        <_>
          <internalNodes>
            0 -1 71 3.6272165743866935e-05</internalNodes>
          <leafValues>
            2.7349805831909180e-01 -6.7970263957977295e-01</leafValues></_>
        <_>
          <internalNodes>
            0 -1 65 -2.1864186972379684e-02</internalNodes>
          <leafValues>
            7.4611079692840576e-01 -2.9190900921821594e-01</leafValues></_>
        <_>
          <internalNodes>
            0 -1 63 5.1363902457524091e-05</internalNodes>
          <leafValues>
            3.2239663600921631e-01 -6.5578013658523560e-01</leafValues></_>
        <_>
          <internalNodes>
            0 -1 55 -2.8189245495013893e-04</internalNodes>
          <leafValues>
            5.0874012708663940e-01 -3.8920712471008301e-01</leafValues></_></weakClassifiers></_>
    <!-- stage 9 -->
    <_>
      <maxWeakCount>4</maxWeakCount>
      <stageThreshold>-6.6078811883926392e-01</stageThreshold>
      <weakClassifiers>
        <_>
          <internalNodes>
            0 -1 39 -2.6601442368701100e-04</internalNodes>
          <leafValues>
            -7.5862067937850952e-01 1.2727272510528564e-01</leafValues></_>
        <_>
          <internalNodes>
            0 -1 20 -1.3302813749760389e-04</internalNodes>
          <leafValues>
            -7.7211827039718628e-01 2.3030644655227661e-01</leafValues></_>
        <_>
          <internalNodes>
            0 -1 54 1.8331892788410187e-03</internalNodes>
          <leafValues>
            -2.8148505091667175e-01 9.4983935356140137e-01</leafValues></_>
        <_>
          <internalNodes>
            0 -1 19 -3.8638411206193268e-04</internalNodes>
          <leafValues>
            -7.3688226938247681e-01 3.4534689784049988e-01</leafValues></_></weakClassifiers></_>
    <!-- stage 10 -->
    <_>
      <maxWeakCount>3</maxWeakCount>
      <stageThreshold>-6.1070537567138672e-01</stageThreshold>
      <weakClassifiers>
        <_>
          <internalNodes>
            0 -1 47 -5.3060866892337799e-02</internalNodes>
          <leafValues>
            8.2608693838119507e-01 -6.2222224473953247e-01</leafValues></_>
        <_>
          <internalNodes>
            0 -1 82 -1.6351233352907002e-04</internalNodes>
          <leafValues>
            -7.3345929384231567e-01 4.4799029827117920e-01</leafValues></_>
        <_>
          <internalNodes>
            0 -1 30 8.1120021641254425e-02</internalNodes>
          <leafValues>
            -4.3369269371032715e-01 7.4497616291046143e-01</leafValues></_></weakClassifiers></_>
    <!-- stage 11 -->
    <_>
      <maxWeakCount>4</maxWeakCount>
      <stageThreshold>-9.2341846227645874e-01</stageThreshold>
      <weakClassifiers>
        <_>
          <internalNodes>
            0 -1 15 -2.1442663669586182e-01</internalNodes>
          <leafValues>
            8.4615385532379150e-01 -6.7816090583801270e-01</leafValues></_>
        <_>
          <internalNodes>
            0 -1 66 4.6579510672017932e-04</internalNodes>
          <leafValues>
            4.5877552032470703e-01 -8.9102321863174438e-01</leafValues></_>
        <_>
          <internalNodes>
            0 -1 80 6.4404834120068699e-05</internalNodes>
          <leafValues>
            2.8636348247528076e-01 -8.9138227701187134e-01</leafValues></_>
        <_>
          <internalNodes>
            0 -1 73 1.3874478172510862e-03</internalNodes>
          <leafValues>
            3.5940220952033997e-01 -9.2607688903808594e-01</leafValues></_></weakClassifiers></_>
    <!-- stage 12 -->
    <_>
      <maxWeakCount>4</maxWeakCount>
      <stageThreshold>-6.7416107654571533e-01</stageThreshold>
      <weakClassifiers>
        <_>
          <internalNodes>
            0 -1 24 -2.4147862195968628e-01</internalNodes>
          <leafValues>
            7.5999999046325684e-01 -6.3636362552642822e-01</leafValues></_>
        <_>
          <internalNodes>
            0 -1 46 -1.0847252997336909e-04</internalNodes>
          <leafValues>
            -8.5499638319015503e-01 3.7459510564804077e-01</leafValues></_>
        <_>
          <internalNodes>
            0 -1 83 -7.2987706516869366e-05</internalNodes>
          <leafValues>
            -6.6446363925933838e-01 5.1857686042785645e-01</leafValues></_>
        <_>
          <internalNodes>
            0 -1 43 4.6194558963179588e-03</internalNodes>
          <leafValues>
            3.5776716470718384e-01 -9.3096941709518433e-01</leafValues></_></weakClassifiers></_>
    <!-- stage 13 -->
    <_>
      <maxWeakCount>4</maxWeakCount>
      <stageThreshold>-6.5069216489791870e-01</stageThreshold>
      <weakClassifiers>
        <_>
          <internalNodes>
            0 -1 31 -1.7686080932617188e-01</internalNodes>
          <leafValues>
            7.6744186878204346e-01 -5.8469945192337036e-01</leafValues></_>
        <_>
          <internalNodes>
            0 -1 52 -4.3170031160116196e-02</internalNodes>
          <leafValues>
            -1. 3.0661743879318237e-01</leafValues></_>
        <_>
          <internalNodes>
            0 -1 34 -1.1053394991904497e-03</internalNodes>
          <leafValues>
            -7.8222090005874634e-01 3.5270622372627258e-01</leafValues></_>
        <_>
          <internalNodes>
            0 -1 64 -2.2905750665813684e-03</internalNodes>
          <leafValues>
            -7.2531634569168091e-01 4.8930925130844116e-01</leafValues></_></weakClassifiers></_>
    <!-- stage 14 -->
    <_>
      <maxWeakCount>3</maxWeakCount>
      <stageThreshold>-2.9932570457458496e-01</stageThreshold>
      <weakClassifiers>
        <_>
          <internalNodes>
            0 -1 14 -1.2945069372653961e-01</internalNodes>
          <leafValues>
            7.1875000000000000e-01 -7.4074071645736694e-01</leafValues></_>
        <_>
          <internalNodes>
            0 -1 4 1.0277875512838364e-01</internalNodes>
          <leafValues>
            -4.8105135560035706e-01 1.</leafValues></_>
        <_>
          <internalNodes>
            0 -1 1 -1.1162140220403671e-01</internalNodes>
          <leafValues>
            9.2246639728546143e-01 -4.5059734582901001e-01</leafValues></_></weakClassifiers></_>
    <!-- stage 15 -->
    <_>
      <maxWeakCount>5</maxWeakCount>
      <stageThreshold>-6.6607218980789185e-01</stageThreshold>
      <weakClassifiers>
        <_>
          <internalNodes>
            0 -1 89 -4.9391630454920232e-05</internalNodes>
          <leafValues>
            -8.2978725433349609e-01 3.0303031206130981e-02</leafValues></_>
        <_>
          <internalNodes>
            0 -1 3 -4.6421002480201423e-04</internalNodes>
          <leafValues>
            -7.9463082551956177e-01 1.9741053879261017e-01</leafValues></_>
        <_>
          <internalNodes>
            0 -1 86 -1.7846226692199707e-02</internalNodes>
          <leafValues>
            -9.4774508476257324e-01 2.1623569726943970e-01</leafValues></_>
        <_>
          <internalNodes>
            0 -1 74 6.2566483393311501e-03</internalNodes>
          <leafValues>
            -3.6017477512359619e-01 7.3561048507690430e-01</leafValues></_>
        <_>
          <internalNodes>
            0 -1 79 4.6632419980596751e-05</internalNodes>
          <leafValues>
            3.9088860154151917e-01 -6.8165117502212524e-01</leafValues></_></weakClassifiers></_>
    <!-- stage 16 -->
    <_>
      <maxWeakCount>4</maxWeakCount>
      <stageThreshold>-1.0201056003570557e+00</stageThreshold>
      <weakClassifiers>
        <_>
          <internalNodes>
            0 -1 12 3.4668436273932457e-04</internalNodes>
          <leafValues>
            9.9099099636077881e-02 -7.3913043737411499e-01</leafValues></_>
        <_>
          <internalNodes>
            0 -1 29 -6.6535052610561252e-05</internalNodes>
          <leafValues>
            -8.4395563602447510e-01 2.4833922088146210e-01</leafValues></_>
        <_>
          <internalNodes>
            0 -1 9 -5.0178980454802513e-03</internalNodes>
          <leafValues>
            -9.5614928007125854e-01 1.4759415388107300e-01</leafValues></_>
        <_>
          <internalNodes>
            0 -1 23 2.8657172806560993e-03</internalNodes>
          <leafValues>
            3.6761429905891418e-01 -6.7690849304199219e-01</leafValues></_></weakClassifiers></_>
    <!-- stage 17 -->
    <_>
      <maxWeakCount>5</maxWeakCount>
      <stageThreshold>-6.2442636489868164e-01</stageThreshold>
      <weakClassifiers>
        <_>
          <internalNodes>
            0 -1 17 -7.0366701111197472e-03</internalNodes>
          <leafValues>
            6.3636362552642822e-01 -4.9222797155380249e-01</leafValues></_>
        <_>
          <internalNodes>
            0 -1 2 -1.4579298440366983e-03</internalNodes>
          <leafValues>
            -5.2092146873474121e-01 3.5348343849182129e-01</leafValues></_>
        <_>
          <internalNodes>
            0 -1 26 1.3287782203406096e-03</internalNodes>
          <leafValues>
            2.9975861310958862e-01 -6.7422044277191162e-01</leafValues></_>
        <_>
          <internalNodes>
            0 -1 69 -2.2895195797900669e-05</internalNodes>
          <leafValues>
            5.5856806039810181e-01 -4.3361893296241760e-01</leafValues></_>
        <_>
          <internalNodes>
            0 -1 40 6.1054560355842113e-03</internalNodes>
          <leafValues>
            -3.5182151198387146e-01 7.4339562654495239e-01</leafValues></_></weakClassifiers></_>
    <!-- stage 18 -->
    <_>
      <maxWeakCount>7</maxWeakCount>
      <stageThreshold>-6.9616103172302246e-01</stageThreshold>
      <weakClassifiers>
        <_>
          <internalNodes>
            0 -1 38 -1.7463300377130508e-02</internalNodes>
          <leafValues>
            7.1428573131561279e-01 -4.7474747896194458e-01</leafValues></_>
        <_>
          <internalNodes>
            0 -1 59 -2.7344626141712070e-04</internalNodes>
          <leafValues>
            4.8418423533439636e-01 -3.6762207746505737e-01</leafValues></_>
        <_>
          <internalNodes>
            0 -1 42 1.7629023641347885e-02</internalNodes>
          <leafValues>
            -4.1831067204475403e-01 4.5551997423171997e-01</leafValues></_>
        <_>
          <internalNodes>
            0 -1 35 -2.4576697032898664e-03</internalNodes>
          <leafValues>
            -7.7071863412857056e-01 2.5565201044082642e-01</leafValues></_>
        <_>
          <internalNodes>
            0 -1 16 2.7952003292739391e-03</internalNodes>
          <leafValues>
            -2.2326470911502838e-01 8.3372688293457031e-01</leafValues></_>
        <_>
          <internalNodes>
            0 -1 45 -1.4143791049718857e-03</internalNodes>
          <leafValues>
            4.7304722666740417e-01 -4.0537413954734802e-01</leafValues></_>
        <_>
          <internalNodes>
            0 -1 50 -1.7495290376245975e-04</internalNodes>
          <leafValues>
            -7.9272168874740601e-01 2.7046683430671692e-01</leafValues></_></weakClassifiers></_>
    <!-- stage 19 -->
    <_>
      <maxWeakCount>7</maxWeakCount>
      <stageThreshold>-8.5801142454147339e-01</stageThreshold>
      <weakClassifiers>
        <_>
          <internalNodes>
            0 -1 13 -3.8386934995651245e-01</internalNodes>
          <leafValues>
            6.1111110448837280e-01 -5.0526314973831177e-01</leafValues></_>
        <_>
          <internalNodes>
            0 -1 22 9.4232580158859491e-04</internalNodes>
          <leafValues>
            2.3862932622432709e-01 -6.2879067659378052e-01</leafValues></_>
        <_>
          <internalNodes>
            0 -1 32 -2.2538949269801378e-03</internalNodes>
          <leafValues>
            -4.2023289203643799e-01 3.9093962311744690e-01</leafValues></_>
        <_>
          <internalNodes>
            0 -1 53 1.1029483750462532e-02</internalNodes>
          <leafValues>
            -3.7139043211936951e-01 6.0119438171386719e-01</leafValues></_>
        <_>
          <internalNodes>
            0 -1 25 -1.0821115225553513e-01</internalNodes>
          <leafValues>
            -7.5735032558441162e-01 2.6254597306251526e-01</leafValues></_>
        <_>
          <internalNodes>
            0 -1 67 4.1011793655343354e-04</internalNodes>
          <leafValues>
            -3.4370273351669312e-01 5.8991301059722900e-01</leafValues></_>
        <_>
          <internalNodes>
            0 -1 87 5.9756529517471790e-03</internalNodes>
          <leafValues>
            3.2871392369270325e-01 -7.6306134462356567e-01</leafValues></_></weakClassifiers></_></stages>
  <features>
    <_>
      <rects>
        <_>
          0 0 16 1 -1.</_>
        <_>
          8 0 8 1 2.</_></rects>
      <tilted>0</tilted></_>
    <_>
      <rects>
        <_>
          0 1 24 21 -1.</_>
        <_>
          8 1 8 21 3.</_></rects>
      <tilted>0</tilted></_>
    <_>
      <rects>
        <_>
          0 3 1 21 -1.</_>
        <_>
          0 10 1 7 3.</_></rects>
      <tilted>0</tilted></_>
    <_>
      <rects>
        <_>
          0 3 2 6 -1.</_>
        <_>
          0 5 2 2 3.</_></rects>
      <tilted>0</tilted></_>
    <_>
      <rects>
        <_>
          0 3 24 12 -1.</_>
        <_>
          8 3 8 12 3.</_></rects>
      <tilted>0</tilted></_>
    <_>
      <rects>
        <_>
          0 4 1 20 -1.</_>
        <_>
          0 14 1 10 2.</_></rects>
      <tilted>0</tilted></_>
    <_>
      <rects>
        <_>
          0 4 8 20 -1.</_>
        <_>
          4 4 4 20 2.</_></rects>
      <tilted>0</tilted></_>
    <_>
      <rects>
        <_>
          0 6 24 14 -1.</_>
        <_>
          12 6 12 14 2.</_></rects>
      <tilted>0</tilted></_>
    <_>
      <rects>
        <_>
          0 8 1 10 -1.</_>
        <_>
          0 13 1 5 2.</_></rects>
      <tilted>0</tilted></_>
    <_>
      <rects>
        <_>
          0 10 1 12 -1.</_>
        <_>
          0 16 1 6 2.</_></rects>
      <tilted>0</tilted></_>
    <_>
      <rects>
        <_>
          0 11 8 7 -1.</_>
        <_>
          4 11 4 7 2.</_></rects>
      <tilted>0</tilted></_>
    <_>
      <rects>
        <_>
          0 11 8 8 -1.</_>
        <_>
          4 11 4 8 2.</_></rects>
      <tilted>0</tilted></_>
    <_>
      <rects>
        <_>
          0 23 6 1 -1.</_>
        <_>
          2 23 2 1 3.</_></rects>
      <tilted>0</tilted></_>
    <_>
      <rects>
        <_>
          1 0 15 24 -1.</_>
        <_>
          1 8 15 8 3.</_></rects>
      <tilted>0</tilted></_>
    <_>
      <rects>
        <_>
          1 0 19 20 -1.</_>
        <_>
          1 10 19 10 2.</_></rects>
      <tilted>0</tilted></_>
    <_>
      <rects>
        <_>
          1 0 22 18 -1.</_>
        <_>
          1 9 22 9 2.</_></rects>
      <tilted>0</tilted></_>
    <_>
      <rects>
        <_>
          1 8 2 8 -1.</_>
        <_>
          1 8 1 4 2.</_>
        <_>
          2 12 1 4 2.</_></rects>
      <tilted>0</tilted></_>
    <_>
      <rects>
        <_>
          1 8 2 8 -1.</_>
        <_>
          2 8 1 8 2.</_></rects>
      <tilted>0</tilted></_>
    <_>
      <rects>
        <_>
          1 16 9 1 -1.</_>
        <_>
          4 16 3 1 3.</_></rects>
      <tilted>0</tilted></_>
    <_>
      <rects>
        <_>
          1 17 1 4 -1.</_>
        <_>
          1 19 1 2 2.</_></rects>
      <tilted>0</tilted></_>
    <_>
      <rects>
        <_>
          1 22 3 2 -1.</_>
        <_>
          1 23 3 1 2.</_></rects>
      <tilted>0</tilted></_>
    <_>
      <rects>
        <_>
          1 23 15 1 -1.</_>
        <_>
          6 23 5 1 3.</_></rects>
      <tilted>0</tilted></_>
    <_>
      <rects>
        <_>
          2 0 12 1 -1.</_>
        <_>
          6 0 4 1 3.</_></rects>
      <tilted>0</tilted></_>
    <_>
      <rects>
        <_>
          2 0 12 1 -1.</_>
        <_>
          8 0 6 1 2.</_></rects>
      <tilted>0</tilted></_>
    <_>
      <rects>
        <_>
          2 0 22 16 -1.</_>
        <_>
          2 8 22 8 2.</_></rects>
      <tilted>0</tilted></_>
    <_>
      <rects>
        <_>
          2 3 20 16 -1.</_>
        <_>
          12 3 10 16 2.</_></rects>
      <tilted>0</tilted></_>
    <_>
      <rects>
        <_>
          3 1 10 1 -1.</_>
        <_>
          8 1 5 1 2.</_></rects>
      <tilted>0</tilted></_>
    <_>
      <rects>
        <_>
          3 12 3 6 -1.</_>
        <_>
          4 12 1 6 3.</_></rects>
      <tilted>0</tilted></_>
    <_>
      <rects>
        <_>
          4 0 20 1 -1.</_>
        <_>
          14 0 10 1 2.</_></rects>
      <tilted>0</tilted></_>
    <_>
      <rects>
        <_>
          5 0 4 1 -1.</_>
        <_>
          7 0 2 1 2.</_></rects>
      <tilted>0</tilted></_>
    <_>
      <rects>
        <_>
          5 0 10 18 -1.</_>
        <_>
          5 6 10 6 3.</_></rects>
      <tilted>0</tilted></_>
    <_>
      <rects>
        <_>
          5 2 17 14 -1.</_>
        <_>
          5 9 17 7 2.</_></rects>
      <tilted>0</tilted></_>
    <_>
      <rects>
        <_>
          6 1 12 16 -1.</_>
        <_>
          10 1 4 16 3.</_></rects>
      <tilted>0</tilted></_>
    <_>
      <rects>
        <_>
          6 10 3 4 -1.</_>
        <_>
          6 12 3 2 2.</_></rects>
      <tilted>0</tilted></_>
    <_>
      <rects>
        <_>
          7 0 6 1 -1.</_>
        <_>
          9 0 2 1 3.</_></rects>
      <tilted>0</tilted></_>
    <_>
      <rects>
        <_>
          7 0 12 1 -1.</_>
        <_>
          13 0 6 1 2.</_></rects>
      <tilted>0</tilted></_>
    <_>
      <rects>
        <_>
          7 0 10 12 -1.</_>
        <_>
          7 6 10 6 2.</_></rects>
      <tilted>0</tilted></_>
    <_>
      <rects>
        <_>
          7 12 2 2 -1.</_>
        <_>
          7 13 2 1 2.</_></rects>
      <tilted>0</tilted></_>
    <_>
      <rects>
        <_>
          7 15 2 9 -1.</_>
        <_>
          7 18 2 3 3.</_></rects>
      <tilted>0</tilted></_>
    <_>
      <rects>
        <_>
          7 23 6 1 -1.</_>
        <_>
          10 23 3 1 2.</_></rects>
      <tilted>0</tilted></_>
    <_>
      <rects>
        <_>
          8 5 1 9 -1.</_>
        <_>
          8 8 1 3 3.</_></rects>
      <tilted>0</tilted></_>
    <_>
      <rects>
        <_>
          8 11 1 2 -1.</_>
        <_>
          8 12 1 1 2.</_></rects>
      <tilted>0</tilted></_>
    <_>
      <rects>
        <_>
          9 0 13 9 -1.</_>
        <_>
          9 3 13 3 3.</_></rects>
      <tilted>0</tilted></_>
    <_>
      <rects>
        <_>
          9 4 3 13 -1.</_>
        <_>
          10 4 1 13 3.</_></rects>
      <tilted>0</tilted></_>
    <_>
      <rects>
        <_>
          9 14 3 4 -1.</_>
        <_>
          9 16 3 2 2.</_></rects>
      <tilted>0</tilted></_>
    <_>
      <rects>
        <_>
          9 16 6 6 -1.</_>
        <_>
          9 18 6 2 3.</_></rects>
      <tilted>0</tilted></_>
    <_>
      <rects>
        <_>
          10 0 2 1 -1.</_>
        <_>
          11 0 1 1 2.</_></rects>
      <tilted>0</tilted></_>
    <_>
      <rects>
        <_>
          10 0 4 12 -1.</_>
        <_>
          10 6 4 6 2.</_></rects>
      <tilted>0</tilted></_>
    <_>
      <rects>
        <_>
          10 8 1 3 -1.</_>
        <_>
          10 9 1 1 3.</_></rects>
      <tilted>0</tilted></_>
    <_>
      <rects>
        <_>
          10 13 1 2 -1.</_>
        <_>
          10 14 1 1 2.</_></rects>
      <tilted>0</tilted></_>
    <_>
      <rects>
        <_>
          10 23 3 1 -1.</_>
        <_>
          11 23 1 1 3.</_></rects>
      <tilted>0</tilted></_>
    <_>
      <rects>
        <_>
          11 0 6 2 -1.</_>
        <_>
          14 0 3 2 2.</_></rects>
      <tilted>0</tilted></_>
    <_>
      <rects>
        <_>
          11 0 6 24 -1.</_>
        <_>
          14 0 3 24 2.</_></rects>
      <tilted>0</tilted></_>
    <_>
      <rects>
        <_>
          11 1 12 6 -1.</_>
        <_>
          11 1 6 3 2.</_>
        <_>
          17 4 6 3 2.</_></rects>
      <tilted>0</tilted></_>
    <_>
      <rects>
        <_>
          11 10 1 3 -1.</_>
        <_>
          11 11 1 1 3.</_></rects>
      <tilted>0</tilted></_>
    <_>
      <rects>
        <_>
          11 13 2 4 -1.</_>
        <_>
          11 13 1 2 2.</_>
        <_>
          12 15 1 2 2.</_></rects>
      <tilted>0</tilted></_>
    <_>
      <rects>
        <_>
          11 14 3 9 -1.</_>
        <_>
          11 17 3 3 3.</_></rects>
      <tilted>0</tilted></_>
    <_>
      <rects>
        <_>
          12 3 1 8 -1.</_>
        <_>
          12 7 1 4 2.</_></rects>
      <tilted>0</tilted></_>
    <_>
      <rects>
        <_>
          12 11 1 6 -1.</_>
        <_>
          12 13 1 2 3.</_></rects>
      <tilted>0</tilted></_>
    <_>
      <rects>
        <_>
          12 13 1 2 -1.</_>
        <_>
          12 14 1 1 2.</_></rects>
      <tilted>0</tilted></_>
    <_>
      <rects>
        <_>
          13 13 1 4 -1.</_>
        <_>
          13 15 1 2 2.</_></rects>
      <tilted>0</tilted></_>
    <_>
      <rects>
        <_>
          14 2 2 12 -1.</_>
        <_>
          14 2 1 6 2.</_>
        <_>
          15 8 1 6 2.</_></rects>
      <tilted>0</tilted></_>
    <_>
      <rects>
        <_>
          15 0 6 2 -1.</_>
        <_>
          17 0 2 2 3.</_></rects>
      <tilted>0</tilted></_>
    <_>
      <rects>
        <_>
          15 0 3 2 -1.</_>
        <_>
          15 1 3 1 2.</_></rects>
      <tilted>0</tilted></_>
    <_>
      <rects>
        <_>
          15 1 8 2 -1.</_>
        <_>
          19 1 4 2 2.</_></rects>
      <tilted>0</tilted></_>
    <_>
      <rects>
        <_>
          15 12 2 12 -1.</_>
        <_>
          15 18 2 6 2.</_></rects>
      <tilted>0</tilted></_>
    <_>
      <rects>
        <_>
          16 0 2 2 -1.</_>
        <_>
          17 0 1 2 2.</_></rects>
      <tilted>0</tilted></_>
    <_>
      <rects>
        <_>
          16 3 4 10 -1.</_>
        <_>
          16 8 4 5 2.</_></rects>
      <tilted>0</tilted></_>
    <_>
      <rects>
        <_>
          16 3 8 17 -1.</_>
        <_>
          20 3 4 17 2.</_></rects>
      <tilted>0</tilted></_>
    <_>
      <rects>
        <_>
          16 12 2 1 -1.</_>
        <_>
          17 12 1 1 2.</_></rects>
      <tilted>0</tilted></_>
    <_>
      <rects>
        <_>
          16 12 8 3 -1.</_>
        <_>
          20 12 4 3 2.</_></rects>
      <tilted>0</tilted></_>
    <_>
      <rects>
        <_>
          16 22 2 2 -1.</_>
        <_>
          16 22 1 1 2.</_>
        <_>
          17 23 1 1 2.</_></rects>
      <tilted>0</tilted></_>
    <_>
      <rects>
        <_>
          17 0 6 1 -1.</_>
        <_>
          20 0 3 1 2.</_></rects>
      <tilted>0</tilted></_>
    <_>
      <rects>
        <_>
          18 0 6 1 -1.</_>
        <_>
          20 0 2 1 3.</_></rects>
      <tilted>0</tilted></_>
    <_>
      <rects>
        <_>
          18 9 6 5 -1.</_>
        <_>
          20 9 2 5 3.</_></rects>
      <tilted>0</tilted></_>
    <_>
      <rects>
        <_>
          19 9 4 6 -1.</_>
        <_>
          21 9 2 6 2.</_></rects>
      <tilted>0</tilted></_>
    <_>
      <rects>
        <_>
          20 3 4 12 -1.</_>
        <_>
          22 3 2 12 2.</_></rects>
      <tilted>0</tilted></_>
    <_>
      <rects>
        <_>
          20 7 4 6 -1.</_>
        <_>
          22 7 2 6 2.</_></rects>
      <tilted>0</tilted></_>
    <_>
      <rects>
        <_>
          20 7 4 10 -1.</_>
        <_>
          22 7 2 10 2.</_></rects>
      <tilted>0</tilted></_>
    <_>
      <rects>
        <_>
          20 23 4 1 -1.</_>
        <_>
          22 23 2 1 2.</_></rects>
      <tilted>0</tilted></_>
    <_>
      <rects>
        <_>
          21 1 2 1 -1.</_>
        <_>
          22 1 1 1 2.</_></rects>
      <tilted>0</tilted></_>
    <_>
      <rects>
        <_>
          22 0 2 4 -1.</_>
        <_>
          23 0 1 4 2.</_></rects>
      <tilted>0</tilted></_>
    <_>
      <rects>
        <_>
          22 1 2 2 -1.</_>
        <_>
          23 1 1 2 2.</_></rects>
      <tilted>0</tilted></_>
    <_>
      <rects>
        <_>
          22 3 2 1 -1.</_>
        <_>
          23 3 1 1 2.</_></rects>
      <tilted>0</tilted></_>
    <_>
      <rects>
        <_>
          23 0 1 2 -1.</_>
        <_>
          23 1 1 1 2.</_></rects>
      <tilted>0</tilted></_>
    <_>
      <rects>
        <_>
          23 0 1 20 -1.</_>
        <_>
          23 10 1 10 2.</_></rects>
      <tilted>0</tilted></_>
    <_>
      <rects>
        <_>
          23 1 1 22 -1.</_>
        <_>
          23 12 1 11 2.</_></rects>
      <tilted>0</tilted></_>
    <_>
      <rects>
        <_>
          23 2 1 22 -1.</_>
        <_>
          23 13 1 11 2.</_></rects>
      <tilted>0</tilted></_>
    <_>
      <rects>
        <_>
          23 7 1 15 -1.</_>
        <_>
          23 12 1 5 3.</_></rects>
      <tilted>0</tilted></_>
    <_>
      <rects>
        <_>
          23 15 1 2 -1.</_>
        <_>
          23 16 1 1 2.</_></rects>
      <tilted>0</tilted></_></features></cascade>
</opencv_storage>
